1403715280.312143 -1.443124 -25.244480 -3.822069 
1403715280.412143 -0.981986 -10.559793 -2.639512 
1403715280.562143 -0.492630 -4.718632 -1.236014 
1403715280.662143 -0.090396 0.197820 -0.122349 
1403715280.812143 -0.490126 -1.387348 -1.235411 
1403715280.912143 -0.103937 0.125870 -0.140061 
1403715281.062143 -0.193478 0.067285 -0.399400 
1403715281.212143 -0.104125 -0.390846 -0.151249 
1403715281.312143 -0.109612 -0.137217 -0.195978 
1403715281.462143 -0.100157 -0.190407 -0.160309 
1403715281.562143 -0.036627 -0.372618 0.018810 
1403715281.712143 -0.085829 -0.347047 -0.125043 
1403715281.812143 -0.090957 -0.284887 -0.143217 
1403715281.962143 0.151237 -0.711450 0.568745 
1403715282.062143 0.132745 -0.579093 0.517215 
1403715282.212143 0.153878 -0.441489 0.589892 
1403715282.312143 0.143566 -0.396582 0.561267 
1403715282.462143 0.096881 -0.116230 0.442833 
1403715282.562143 0.027674 -0.025833 0.248446 
1403715282.712143 -0.000056 -0.046679 0.172250 
1403715282.812143 0.005011 -0.025991 0.193436 
1403715282.962143 0.002020 -0.099215 0.176961 
1403715283.062143 -0.001533 -0.129110 0.158391 
1403715283.212143 -0.015928 -0.143007 0.112934 
1403715283.312143 -0.017791 -0.139534 0.107337 
1403715283.412143 -0.020904 -0.130375 0.098532 
1403715283.512143 -0.020606 -0.134631 0.099869 
1403715283.612143 -0.020958 -0.119257 0.100541 
1403715283.762143 -0.018735 -0.092244 0.109613 
1403715283.862143 -0.019056 -0.094822 0.108473 
1403715284.012143 -0.020304 -0.096317 0.105191 
1403715284.112143 -0.022268 -0.090116 0.100682 
1403715284.262143 -0.022728 -0.075702 0.098692 
1403715284.362143 -0.024837 -0.038719 0.093678 
1403715284.512143 -0.025185 -0.033162 0.092996 
1403715284.612143 -0.026902 0.030514 0.091109 
1403715284.762143 -0.028621 0.050237 0.086180 
1403715284.862143 -0.028231 0.073515 0.087886 
1403715285.012143 -0.027673 0.074614 0.088030 
1403715285.112143 -0.027927 0.086274 0.088811 
1403715285.262143 -0.028342 0.087723 0.086420 
1403715285.362143 -0.028169 0.094860 0.079377 
1403715285.512143 -0.028734 0.093445 0.077193 
1403715285.612143 -0.028270 0.083107 0.071949 
1403715285.762143 -0.026579 0.080725 0.068925 
1403715285.862143 -0.020338 0.074897 0.067638 
1403715286.012143 -0.019322 0.078419 0.071707 
1403715286.112143 -0.017676 0.078909 0.075745 
1403715286.262143 -0.015581 0.080409 0.080899 
1403715286.362143 -0.013917 0.083635 0.084406 
1403715286.512143 -0.013960 0.084364 0.084002 
1403715286.612143 -0.012526 0.088181 0.086311 
1403715286.762143 -0.010713 0.089516 0.088035 
1403715286.862143 -0.011028 0.086030 0.081721 
1403715287.012143 -0.010352 0.087070 0.083311 
1403715287.112143 -0.011830 0.085208 0.081813 
1403715287.262143 -0.011774 0.085058 0.082858 
1403715287.362143 -0.011640 0.086488 0.085604 
1403715287.512143 -0.011204 0.087201 0.086319 
1403715287.612143 -0.011737 0.085528 0.086458 
1403715287.762143 -0.011517 0.085804 0.088642 
1403715287.862143 -0.012089 0.083803 0.091282 
1403715288.012143 -0.012148 0.083316 0.090988 
1403715288.112143 -0.012538 0.082369 0.090356 
1403715288.262143 -0.012188 0.083593 0.090985 
1403715288.362143 -0.011479 0.085975 0.094557 
1403715288.512143 -0.011490 0.086046 0.094609 
1403715288.612143 -0.010477 0.087222 0.094708 
1403715288.762143 -0.009215 0.088274 0.094633 
1403715288.862143 -0.007675 0.089983 0.094943 
1403715289.012143 -0.007604 0.090128 0.095115 
1403715289.112143 -0.007548 0.090372 0.095072 
1403715289.262143 -0.007453 0.091384 0.095728 
1403715289.362143 -0.007593 0.091453 0.095566 
1403715289.512143 -0.007595 0.091958 0.095598 
1403715289.612143 -0.007508 0.092961 0.096095 
1403715289.762143 -0.007495 0.094016 0.096353 
1403715289.862143 -0.007296 0.095010 0.096574 
1403715290.012143 -0.007407 0.095313 0.096527 
1403715290.112143 -0.007264 0.095784 0.096451 
1403715290.262143 -0.007343 0.095788 0.096497 
1403715290.362143 -0.007516 0.095839 0.096356 
1403715290.512143 -0.007518 0.095304 0.095987 
1403715290.612143 -0.007524 0.095535 0.096108 
1403715290.762143 -0.007570 0.095269 0.096006 
1403715290.862143 -0.007574 0.095041 0.095978 
1403715291.012143 -0.007582 0.095459 0.096025 
1403715291.112143 -0.007654 0.095405 0.095806 
1403715291.262143 -0.007625 0.094984 0.095789 
1403715291.362143 -0.007596 0.094833 0.095764 
1403715291.512143 -0.007578 0.094990 0.095807 
1403715291.612143 -0.007592 0.095200 0.095784 
1403715291.762143 -0.007582 0.095300 0.095797 
1403715291.862143 -0.007481 0.094047 0.095864 
1403715292.012143 -0.007558 0.094022 0.095804 
1403715292.112143 -0.007625 0.093953 0.095705 
1403715292.262143 -0.007644 0.093865 0.095635 
1403715292.362143 -0.007673 0.094167 0.095587 
1403715292.512143 -0.007771 0.093691 0.095300 
1403715292.612143 -0.007984 0.094065 0.095346 
1403715292.762143 -0.007960 0.093644 0.095322 
1403715292.862143 -0.007950 0.093764 0.095236 
1403715293.012143 -0.007929 0.093655 0.095285 
1403715293.112143 -0.008087 0.092389 0.095063 
1403715293.212143 -0.008109 0.092172 0.094913 
1403715293.312143 -0.008208 0.092038 0.094634 
1403715293.462143 -0.008259 0.091807 0.094453 
1403715293.562143 -0.008267 0.091750 0.094418 
1403715293.712143 -0.008262 0.091705 0.094462 
1403715293.812143 -0.008321 0.091745 0.094323 
1403715293.962143 -0.008301 0.091500 0.094369 
1403715294.062143 -0.008356 0.091228 0.094296 
1403715294.162143 -0.008401 0.091157 0.094218 
1403715294.312143 -0.008354 0.091255 0.094124 
1403715294.462143 -0.008387 0.091213 0.094155 
1403715294.562143 -0.008378 0.091180 0.094169 
1403715294.712143 -0.008414 0.092774 0.093985 
1403715294.812143 -0.008369 0.094505 0.093005 
1403715294.962143 -0.008314 0.094451 0.093175 
1403715295.062143 -0.008357 0.094880 0.093202 
1403715295.212143 -0.008431 0.095122 0.092772 
1403715295.312143 -0.008666 0.095675 0.092634 
