1403715280.312143 -0.002078 0.020762 0.076059 
1403715280.412143 -0.002347 0.020569 0.076205 
1403715280.562143 -0.002565 0.021411 0.076644 
1403715280.662143 -0.002015 0.021348 0.076825 
1403715280.812143 -0.002370 0.021080 0.076551 
1403715280.912143 -0.002326 0.021415 0.076986 
1403715281.062143 -0.002551 0.021094 0.077123 
1403715281.212143 -0.002480 0.020730 0.077354 
1403715281.312143 -0.002390 0.021148 0.077357 
1403715281.462143 -0.002054 0.020747 0.076976 
1403715281.562143 -0.001950 0.020824 0.076744 
1403715281.712143 -0.001906 0.020822 0.076910 
1403715281.812143 -0.001911 0.020943 0.077045 
1403715281.962143 -0.002128 0.021681 0.076940 
1403715282.062143 -0.001991 0.022126 0.076729 
1403715282.212143 -0.001950 0.022463 0.076359 
1403715282.312143 -0.002079 0.022401 0.076360 
1403715282.462143 -0.002023 0.022727 0.076101 
1403715282.562143 -0.001707 0.022822 0.076156 
1403715282.712143 -0.001593 0.023478 0.076028 
1403715282.812143 -0.001465 0.023653 0.075985 
1403715282.962143 -0.001547 0.023289 0.076059 
1403715283.062143 -0.001284 0.023261 0.075875 
1403715283.212143 -0.001329 0.022885 0.075854 
1403715283.312143 -0.001395 0.022836 0.075898 
1403715283.412143 -0.001588 0.022561 0.076005 
1403715283.512143 -0.001564 0.022596 0.075945 
1403715283.612143 -0.001399 0.022824 0.075912 
1403715283.762143 -0.001513 0.023093 0.075814 
1403715283.862143 -0.001383 0.023132 0.075865 
1403715284.012143 -0.001256 0.023067 0.075896 
1403715284.112143 -0.001179 0.022967 0.075837 
1403715284.262143 -0.001058 0.022948 0.075956 
1403715284.362143 -0.000879 0.022895 0.076007 
1403715284.512143 -0.001035 0.022731 0.076000 
1403715284.612143 -0.001112 0.022706 0.076106 
1403715284.762143 -0.000948 0.022737 0.076118 
1403715284.862143 -0.000821 0.022724 0.076153 
1403715285.012143 -0.000772 0.022672 0.076135 
1403715285.112143 -0.000793 0.022569 0.076107 
1403715285.262143 -0.000560 0.022704 0.076112 
1403715285.362143 -0.000331 0.022550 0.076202 
1403715285.512143 -0.000268 0.022649 0.076153 
1403715285.612143 -0.000159 0.022660 0.076176 
1403715285.762143 -0.000198 0.022556 0.076187 
1403715285.862143 -0.000453 0.022361 0.076167 
1403715286.012143 -0.000810 0.022405 0.076097 
1403715286.112143 -0.000990 0.022358 0.076043 
1403715286.262143 -0.001195 0.022251 0.076048 
1403715286.362143 -0.001233 0.022103 0.076069 
1403715286.512143 -0.001256 0.022092 0.076040 
1403715286.612143 -0.001436 0.021964 0.075977 
1403715286.762143 -0.001591 0.021853 0.075921 
1403715286.862143 -0.001604 0.021845 0.075848 
1403715287.012143 -0.001644 0.021826 0.075860 
1403715287.112143 -0.001594 0.021890 0.075864 
1403715287.262143 -0.001641 0.021960 0.075858 
1403715287.362143 -0.001688 0.022011 0.075877 
1403715287.512143 -0.001698 0.021996 0.075886 
1403715287.612143 -0.001739 0.022017 0.075867 
1403715287.762143 -0.001837 0.021960 0.075867 
1403715287.862143 -0.001899 0.021966 0.075860 
1403715288.012143 -0.001845 0.021946 0.075866 
1403715288.112143 -0.001834 0.021994 0.075879 
1403715288.262143 -0.001854 0.021939 0.075949 
1403715288.362143 -0.001849 0.022010 0.075992 
1403715288.512143 -0.001862 0.022022 0.076025 
1403715288.612143 -0.001903 0.022023 0.076040 
1403715288.762143 -0.001894 0.021942 0.076089 
1403715288.862143 -0.001998 0.021954 0.076099 
1403715289.012143 -0.002019 0.021928 0.076092 
1403715289.112143 -0.002065 0.021923 0.076081 
1403715289.262143 -0.002103 0.021909 0.076082 
1403715289.362143 -0.002100 0.021883 0.076085 
1403715289.512143 -0.002123 0.021838 0.076077 
1403715289.612143 -0.002143 0.021804 0.076071 
1403715289.762143 -0.002165 0.021766 0.076072 
1403715289.862143 -0.002189 0.021719 0.076086 
1403715290.012143 -0.002185 0.021719 0.076083 
1403715290.112143 -0.002198 0.021650 0.076104 
1403715290.262143 -0.002236 0.021577 0.076111 
1403715290.362143 -0.002232 0.021568 0.076111 
1403715290.512143 -0.002235 0.021549 0.076127 
1403715290.612143 -0.002223 0.021552 0.076142 
1403715290.762143 -0.002218 0.021555 0.076151 
1403715290.862143 -0.002201 0.021565 0.076155 
1403715291.012143 -0.002239 0.021555 0.076154 
1403715291.112143 -0.002232 0.021563 0.076152 
1403715291.262143 -0.002222 0.021560 0.076158 
1403715291.362143 -0.002220 0.021563 0.076157 
1403715291.512143 -0.002236 0.021558 0.076150 
1403715291.612143 -0.002245 0.021546 0.076148 
1403715291.762143 -0.002243 0.021524 0.076156 
1403715291.862143 -0.002263 0.021555 0.076156 
1403715292.012143 -0.002228 0.021565 0.076182 
1403715292.112143 -0.002231 0.021562 0.076173 
1403715292.262143 -0.002204 0.021544 0.076182 
1403715292.362143 -0.002213 0.021517 0.076188 
1403715292.512143 -0.002235 0.021524 0.076175 
1403715292.612143 -0.002240 0.021507 0.076188 
1403715292.762143 -0.002248 0.021496 0.076206 
1403715292.862143 -0.002245 0.021496 0.076194 
1403715293.012143 -0.002282 0.021500 0.076184 
1403715293.112143 -0.002277 0.021493 0.076195 
1403715293.212143 -0.002267 0.021514 0.076191 
1403715293.312143 -0.002277 0.021512 0.076190 
1403715293.462143 -0.002239 0.021511 0.076203 
1403715293.562143 -0.002246 0.021493 0.076200 
1403715293.712143 -0.002220 0.021511 0.076211 
1403715293.812143 -0.002251 0.021484 0.076196 
1403715293.962143 -0.002204 0.021520 0.076205 
1403715294.062143 -0.002216 0.021527 0.076207 
1403715294.162143 -0.002209 0.021529 0.076233 
1403715294.312143 -0.002239 0.021480 0.076264 
1403715294.462143 -0.002174 0.021519 0.076347 
1403715294.562143 -0.002189 0.021523 0.076353 
1403715294.712143 -0.002175 0.021469 0.076366 
1403715294.812143 -0.002138 0.021467 0.076377 
1403715294.962143 -0.002175 0.021465 0.076367 
1403715295.062143 -0.002147 0.021467 0.076394 
1403715295.212143 -0.002169 0.021478 0.076380 
1403715295.312143 -0.002147 0.021520 0.076388 
